<?xml version="1.0"?>
<opencv_storage>
<cascade>
  <stageType>BOOST</stageType>
  <featureType>HAAR</featureType>
  <height>24</height>
  <width>24</width>
  <stageParams>
    <boostType>GAB</boostType>
    <minHitRate>9.9800002574920654e-01</minHitRate>
    <maxFalseAlarm>3.0000001192092896e-01</maxFalseAlarm>
    <weightTrimRate>9.4999999999999996e-01</weightTrimRate>
    <maxDepth>1</maxDepth>
    <maxWeakCount>100</maxWeakCount></stageParams>
  <featureParams>
    <maxCatCount>0</maxCatCount>
    <featSize>1</featSize>
    <mode>BASIC</mode></featureParams>
  <stageNum>12</stageNum>
  <stages>
    <!-- stage 0 -->
    <_>
      <maxWeakCount>1</maxWeakCount>
      <stageThreshold>1.</stageThreshold>
      <weakClassifiers>
        <_>
          <internalNodes>
            0 -1 11 -1.9788742065429688e-02</internalNodes>
          <leafValues>
            1. -1.</leafValues></_></weakClassifiers></_>
    <!-- stage 1 -->
    <_>
      <maxWeakCount>2</maxWeakCount>
      <stageThreshold>-2.4354460835456848e-01</stageThreshold>
      <weakClassifiers>
        <_>
          <internalNodes>
            0 -1 8 1.2523364275693893e-02</internalNodes>
          <leafValues>
            -9.5320194959640503e-01 9.2553192377090454e-01</leafValues></_>
        <_>
          <internalNodes>
            0 -1 45 -1.6585487872362137e-02</internalNodes>
          <leafValues>
            7.0965737104415894e-01 -9.8187130689620972e-01</leafValues></_></weakClassifiers></_>
    <!-- stage 2 -->
    <_>
      <maxWeakCount>6</maxWeakCount>
      <stageThreshold>-1.5119390487670898e+00</stageThreshold>
      <weakClassifiers>
        <_>
          <internalNodes>
            0 -1 19 2.2319262847304344e-02</internalNodes>
          <leafValues>
            -8.7744456529617310e-01 3.1330472230911255e-01</leafValues></_>
        <_>
          <internalNodes>
            0 -1 24 -5.2021820098161697e-02</internalNodes>
          <leafValues>
            4.2799338698387146e-01 -8.1810235977172852e-01</leafValues></_>
        <_>
          <internalNodes>
            0 -1 55 2.0492551266215742e-04</internalNodes>
          <leafValues>
            -6.1822652816772461e-01 6.2573421001434326e-01</leafValues></_>
        <_>
          <internalNodes>
            0 -1 2 3.4451768733561039e-03</internalNodes>
          <leafValues>
            -6.9129014015197754e-01 4.9827605485916138e-01</leafValues></_>
        <_>
          <internalNodes>
            0 -1 39 6.5439715399406850e-05</internalNodes>
          <leafValues>
            -4.4911739230155945e-01 7.2446507215499878e-01</leafValues></_>
        <_>
          <internalNodes>
            0 -1 17 -1.6381601744797081e-04</internalNodes>
          <leafValues>
            6.9614624977111816e-01 -3.9703622460365295e-01</leafValues></_></weakClassifiers></_>
    <!-- stage 3 -->
    <_>
      <maxWeakCount>7</maxWeakCount>
      <stageThreshold>-1.5837230682373047e+00</stageThreshold>
      <weakClassifiers>
        <_>
          <internalNodes>
            0 -1 27 -1.3658644631505013e-02</internalNodes>
          <leafValues>
            6.7857140302658081e-01 -7.6126128435134888e-01</leafValues></_>
        <_>
          <internalNodes>
            0 -1 7 7.5322324410080910e-03</internalNodes>
          <leafValues>
            -7.9461723566055298e-01 3.5507175326347351e-01</leafValues></_>
        <_>
          <internalNodes>
            0 -1 38 -7.3012024164199829e-02</internalNodes>
          <leafValues>
            4.2083615064620972e-01 -7.8872531652450562e-01</leafValues></_>
        <_>
          <internalNodes>
            0 -1 48 4.4921347871422768e-03</internalNodes>
          <leafValues>
            -7.6960408687591553e-01 2.6724067330360413e-01</leafValues></_>
        <_>
          <internalNodes>
            0 -1 32 -2.9547085432568565e-05</internalNodes>
          <leafValues>
            5.0966155529022217e-01 -5.4843240976333618e-01</leafValues></_>
        <_>
          <internalNodes>
            0 -1 60 1.1447276483522728e-04</internalNodes>
          <leafValues>
            -4.3924704194068909e-01 5.6320351362228394e-01</leafValues></_>
        <_>
          <internalNodes>
            0 -1 54 -2.7336567640304565e-02</internalNodes>
          <leafValues>
            -1. 3.3163058757781982e-01</leafValues></_></weakClassifiers></_>
    <!-- stage 4 -->
    <_>
      <maxWeakCount>7</maxWeakCount>
      <stageThreshold>-1.1368330717086792e+00</stageThreshold>
      <weakClassifiers>
        <_>
          <internalNodes>
            0 -1 25 3.9573404937982559e-03</internalNodes>
          <leafValues>
            -7.4585634469985962e-01 7.8947371244430542e-01</leafValues></_>
        <_>
          <internalNodes>
            0 -1 44 -1.1280438775429502e-04</internalNodes>
          <leafValues>
            5.3857904672622681e-01 -6.0188561677932739e-01</leafValues></_>
        <_>
          <internalNodes>
            0 -1 57 -2.7643109206110239e-03</internalNodes>
          <leafValues>
            2.8892219066619873e-01 -7.6831382513046265e-01</leafValues></_>
        <_>
          <internalNodes>
            0 -1 10 -2.5299321860074997e-02</internalNodes>
          <leafValues>
            2.2791078686714172e-01 -9.8913806676864624e-01</leafValues></_>
        <_>
          <internalNodes>
            0 -1 29 -3.9851814508438110e-02</internalNodes>
          <leafValues>
            8.4618633985519409e-01 -3.2603916525840759e-01</leafValues></_>
        <_>
          <internalNodes>
            0 -1 23 1.3358565047383308e-02</internalNodes>
          <leafValues>
            -5.6616806983947754e-01 4.1523143649101257e-01</leafValues></_>
        <_>
          <internalNodes>
            0 -1 59 5.8292696485295892e-04</internalNodes>
          <leafValues>
            -3.9511641860008240e-01 6.2057328224182129e-01</leafValues></_></weakClassifiers></_>
    <!-- stage 5 -->
    <_>
      <maxWeakCount>5</maxWeakCount>
      <stageThreshold>-1.4201023578643799e+00</stageThreshold>
      <weakClassifiers>
        <_>
          <internalNodes>
            0 -1 35 -8.1000834703445435e-02</internalNodes>
          <leafValues>
            2.5781250000000000e-01 -8.9516127109527588e-01</leafValues></_>
        <_>
          <internalNodes>
            0 -1 51 -1.4417965896427631e-02</internalNodes>
          <leafValues>
            2.2761465609073639e-01 -8.4264689683914185e-01</leafValues></_>
        <_>
          <internalNodes>
            0 -1 47 1.5403456054627895e-03</internalNodes>
          <leafValues>
            -4.2982810735702515e-01 7.3546558618545532e-01</leafValues></_>
        <_>
          <internalNodes>
            0 -1 49 -3.7181563675403595e-04</internalNodes>
          <leafValues>
            2.3875537514686584e-01 -1.</leafValues></_>
        <_>
          <internalNodes>
            0 -1 61 -1.2038433851557784e-05</internalNodes>
          <leafValues>
            -5.6148296594619751e-01 5.3817790746688843e-01</leafValues></_></weakClassifiers></_>
    <!-- stage 6 -->
    <_>
      <maxWeakCount>3</maxWeakCount>
      <stageThreshold>-1.2652829885482788e+00</stageThreshold>
      <weakClassifiers>
        <_>
          <internalNodes>
            0 -1 12 -1.9135336577892303e-01</internalNodes>
          <leafValues>
            3.3571428060531616e-01 -9.6388888359069824e-01</leafValues></_>
        <_>
          <internalNodes>
            0 -1 22 -9.7778867930173874e-03</internalNodes>
          <leafValues>
            2.4124230444431305e-01 -9.3323844671249390e-01</leafValues></_>
        <_>
          <internalNodes>
            0 -1 41 1.4353591250255704e-03</internalNodes>
          <leafValues>
            -5.4263645410537720e-01 8.6486536264419556e-01</leafValues></_></weakClassifiers></_>
    <!-- stage 7 -->
    <_>
      <maxWeakCount>6</maxWeakCount>
      <stageThreshold>-1.9886562824249268e+00</stageThreshold>
      <weakClassifiers>
        <_>
          <internalNodes>
            0 -1 37 1.1531922966241837e-02</internalNodes>
          <leafValues>
            -7.9232507944107056e-01 8.9473682641983032e-01</leafValues></_>
        <_>
          <internalNodes>
            0 -1 40 -4.4622304849326611e-03</internalNodes>
          <leafValues>
            -8.4648764133453369e-01 3.8901597261428833e-01</leafValues></_>
        <_>
          <internalNodes>
            0 -1 46 -3.5351521801203489e-03</internalNodes>
          <leafValues>
            5.7184040546417236e-01 -5.4059731960296631e-01</leafValues></_>
        <_>
          <internalNodes>
            0 -1 6 -1.5516149997711182e-01</internalNodes>
          <leafValues>
            3.7230300903320313e-01 -6.5072154998779297e-01</leafValues></_>
        <_>
          <internalNodes>
            0 -1 36 -1.0200091451406479e-01</internalNodes>
          <leafValues>
            -9.2731726169586182e-01 2.5915086269378662e-01</leafValues></_>
        <_>
          <internalNodes>
            0 -1 18 -2.5514083972666413e-05</internalNodes>
          <leafValues>
            4.9992480874061584e-01 -5.3011333942413330e-01</leafValues></_></weakClassifiers></_>
    <!-- stage 8 -->
    <_>
      <maxWeakCount>5</maxWeakCount>
      <stageThreshold>-1.2461783885955811e+00</stageThreshold>
      <weakClassifiers>
        <_>
          <internalNodes>
            0 -1 56 2.5631892494857311e-03</internalNodes>
          <leafValues>
            -7.5193798542022705e-01 8.1443297863006592e-01</leafValues></_>
        <_>
          <internalNodes>
            0 -1 33 -3.4253474324941635e-02</internalNodes>
          <leafValues>
            -8.1310939788818359e-01 2.8997990489006042e-01</leafValues></_>
        <_>
          <internalNodes>
            0 -1 13 8.7394341826438904e-02</internalNodes>
          <leafValues>
            3.5932099819183350e-01 -8.6099183559417725e-01</leafValues></_>
        <_>
          <internalNodes>
            0 -1 21 -2.2665411233901978e-04</internalNodes>
          <leafValues>
            5.7869082689285278e-01 -4.3529450893402100e-01</leafValues></_>
        <_>
          <internalNodes>
            0 -1 50 1.5896906552370638e-04</internalNodes>
          <leafValues>
            -5.0191932916641235e-01 4.8744064569473267e-01</leafValues></_></weakClassifiers></_>
    <!-- stage 9 -->
    <_>
      <maxWeakCount>7</maxWeakCount>
      <stageThreshold>-1.5146404504776001e+00</stageThreshold>
      <weakClassifiers>
        <_>
          <internalNodes>
            0 -1 5 -1.1869326954183634e-05</internalNodes>
          <leafValues>
            -7.9562044143676758e-01 3.0337077379226685e-01</leafValues></_>
        <_>
          <internalNodes>
            0 -1 15 9.6076820045709610e-03</internalNodes>
          <leafValues>
            -5.8153825998306274e-01 4.4953992962837219e-01</leafValues></_>
        <_>
          <internalNodes>
            0 -1 1 -3.9675325155258179e-02</internalNodes>
          <leafValues>
            -9.3263286352157593e-01 2.0199024677276611e-01</leafValues></_>
        <_>
          <internalNodes>
            0 -1 14 1.1103447526693344e-02</internalNodes>
          <leafValues>
            1.8588960170745850e-01 -8.0786061286926270e-01</leafValues></_>
        <_>
          <internalNodes>
            0 -1 58 9.0656976681202650e-05</internalNodes>
          <leafValues>
            -4.4063356518745422e-01 4.4417855143547058e-01</leafValues></_>
        <_>
          <internalNodes>
            0 -1 62 -1.1738595276256092e-05</internalNodes>
          <leafValues>
            -4.0575700998306274e-01 4.7220468521118164e-01</leafValues></_>
        <_>
          <internalNodes>
            0 -1 9 -8.6989700794219971e-02</internalNodes>
          <leafValues>
            3.2102897763252258e-01 -6.4456093311309814e-01</leafValues></_></weakClassifiers></_>
    <!-- stage 10 -->
    <_>
      <maxWeakCount>11</maxWeakCount>
      <stageThreshold>-1.5588387250900269e+00</stageThreshold>
      <weakClassifiers>
        <_>
          <internalNodes>
            0 -1 42 3.9914040826261044e-03</internalNodes>
          <leafValues>
            -7.7623993158340454e-01 5.4887217283248901e-01</leafValues></_>
        <_>
          <internalNodes>
            0 -1 34 -1.3056020252406597e-03</internalNodes>
          <leafValues>
            3.0773809552192688e-01 -6.3388633728027344e-01</leafValues></_>
        <_>
          <internalNodes>
            0 -1 0 -5.1939783588750288e-05</internalNodes>
          <leafValues>
            -3.8457974791526794e-01 6.1560159921646118e-01</leafValues></_>
        <_>
          <internalNodes>
            0 -1 26 1.5891101211309433e-02</internalNodes>
          <leafValues>
            3.7980821728706360e-01 -6.2735378742218018e-01</leafValues></_>
        <_>
          <internalNodes>
            0 -1 31 -1.4490494504570961e-04</internalNodes>
          <leafValues>
            4.9628561735153198e-01 -4.9044871330261230e-01</leafValues></_>
        <_>
          <internalNodes>
            0 -1 28 2.6901017918135040e-05</internalNodes>
          <leafValues>
            -3.7696555256843567e-01 5.6298923492431641e-01</leafValues></_>
        <_>
          <internalNodes>
            0 -1 53 1.4415195437322836e-05</internalNodes>
          <leafValues>
            -4.4975027441978455e-01 5.4691827297210693e-01</leafValues></_>
        <_>
          <internalNodes>
            0 -1 16 -9.6087835729122162e-02</internalNodes>
          <leafValues>
            3.1708693504333496e-01 -9.3766993284225464e-01</leafValues></_>
        <_>
          <internalNodes>
            0 -1 30 6.0921291151316836e-05</internalNodes>
          <leafValues>
            -3.5664474964141846e-01 8.5442852973937988e-01</leafValues></_>
        <_>
          <internalNodes>
            0 -1 52 -4.7818772145546973e-04</internalNodes>
          <leafValues>
            -6.0469579696655273e-01 3.7000760436058044e-01</leafValues></_>
        <_>
          <internalNodes>
            0 -1 43 -1.9477512978482991e-04</internalNodes>
          <leafValues>
            8.7752240896224976e-01 -2.9950299859046936e-01</leafValues></_></weakClassifiers></_>
    <!-- stage 11 -->
    <_>
      <maxWeakCount>3</maxWeakCount>
      <stageThreshold>-1.0927320718765259e+00</stageThreshold>
      <weakClassifiers>
        <_>
          <internalNodes>
            0 -1 20 -6.4813351491466165e-04</internalNodes>
          <leafValues>
            -8.9125293493270874e-01 1.</leafValues></_>
        <_>
          <internalNodes>
            0 -1 3 3.2051433809101582e-03</internalNodes>
          <leafValues>
            -7.4939739704132080e-01 1.</leafValues></_>
        <_>
          <internalNodes>
            0 -1 4 -6.6210761666297913e-02</internalNodes>
          <leafValues>
            -9.5672702789306641e-01 5.4791831970214844e-01</leafValues></_></weakClassifiers></_></stages>
  <features>
    <_>
      <rects>
        <_>
          0 0 1 6 -1.</_>
        <_>
          0 2 1 2 2.</_></rects>
      <tilted>0</tilted></_>
    <_>
      <rects>
        <_>
          0 0 12 24 -1.</_>
        <_>
          6 0 6 24 2.</_></rects>
      <tilted>0</tilted></_>
    <_>
      <rects>
        <_>
          0 0 13 4 -1.</_>
        <_>
          0 2 13 2 2.</_></rects>
      <tilted>0</tilted></_>
    <_>
      <rects>
        <_>
          0 1 5 4 -1.</_>
        <_>
          0 3 5 2 2.</_></rects>
      <tilted>0</tilted></_>
    <_>
      <rects>
        <_>
          0 2 13 14 -1.</_>
        <_>
          0 9 13 7 2.</_></rects>
      <tilted>0</tilted></_>
    <_>
      <rects>
        <_>
          0 3 1 3 -1.</_>
        <_>
          0 4 1 1 2.</_></rects>
      <tilted>0</tilted></_>
    <_>
      <rects>
        <_>
          0 11 24 12 -1.</_>
        <_>
          0 15 24 4 2.</_></rects>
      <tilted>0</tilted></_>
    <_>
      <rects>
        <_>
          1 0 3 18 -1.</_>
        <_>
          1 9 3 9 2.</_></rects>
      <tilted>0</tilted></_>
    <_>
      <rects>
        <_>
          1 0 22 6 -1.</_>
        <_>
          1 3 22 3 2.</_></rects>
      <tilted>0</tilted></_>
    <_>
      <rects>
        <_>
          1 9 15 8 -1.</_>
        <_>
          6 9 5 8 2.</_></rects>
      <tilted>0</tilted></_>
    <_>
      <rects>
        <_>
          1 11 9 6 -1.</_>
        <_>
          1 13 9 2 2.</_></rects>
      <tilted>0</tilted></_>
    <_>
      <rects>
        <_>
          1 16 18 3 -1.</_>
        <_>
          1 17 18 1 2.</_></rects>
      <tilted>0</tilted></_>
    <_>
      <rects>
        <_>
          2 1 15 21 -1.</_>
        <_>
          7 1 5 21 2.</_></rects>
      <tilted>0</tilted></_>
    <_>
      <rects>
        <_>
          2 7 22 13 -1.</_>
        <_>
          13 7 11 13 2.</_></rects>
      <tilted>0</tilted></_>
    <_>
      <rects>
        <_>
          3 0 4 18 -1.</_>
        <_>
          3 0 2 9 2.</_>
        <_>
          5 9 2 9 2.</_></rects>
      <tilted>0</tilted></_>
    <_>
      <rects>
        <_>
          3 7 12 6 -1.</_>
        <_>
          3 7 6 3 2.</_>
        <_>
          9 10 6 3 2.</_></rects>
      <tilted>0</tilted></_>
    <_>
      <rects>
        <_>
          3 9 12 15 -1.</_>
        <_>
          7 9 4 15 2.</_></rects>
      <tilted>0</tilted></_>
    <_>
      <rects>
        <_>
          3 13 4 1 -1.</_>
        <_>
          5 13 2 1 2.</_></rects>
      <tilted>0</tilted></_>
    <_>
      <rects>
        <_>
          3 14 2 1 -1.</_>
        <_>
          4 14 1 1 2.</_></rects>
      <tilted>0</tilted></_>
    <_>
      <rects>
        <_>
          4 0 16 4 -1.</_>
        <_>
          4 2 16 2 2.</_></rects>
      <tilted>0</tilted></_>
    <_>
      <rects>
        <_>
          4 1 4 6 -1.</_>
        <_>
          6 1 2 6 2.</_></rects>
      <tilted>0</tilted></_>
    <_>
      <rects>
        <_>
          4 7 4 2 -1.</_>
        <_>
          6 7 2 2 2.</_></rects>
      <tilted>0</tilted></_>
    <_>
      <rects>
        <_>
          4 17 7 3 -1.</_>
        <_>
          4 18 7 1 2.</_></rects>
      <tilted>0</tilted></_>
    <_>
      <rects>
        <_>
          5 0 17 4 -1.</_>
        <_>
          5 2 17 2 2.</_></rects>
      <tilted>0</tilted></_>
    <_>
      <rects>
        <_>
          5 17 12 6 -1.</_>
        <_>
          9 17 4 6 2.</_></rects>
      <tilted>0</tilted></_>
    <_>
      <rects>
        <_>
          5 20 10 2 -1.</_>
        <_>
          5 21 10 1 2.</_></rects>
      <tilted>0</tilted></_>
    <_>
      <rects>
        <_>
          6 1 8 9 -1.</_>
        <_>
          10 1 4 9 2.</_></rects>
      <tilted>0</tilted></_>
    <_>
      <rects>
        <_>
          6 22 15 2 -1.</_>
        <_>
          6 23 15 1 2.</_></rects>
      <tilted>0</tilted></_>
    <_>
      <rects>
        <_>
          7 14 1 2 -1.</_>
        <_>
          7 15 1 1 2.</_></rects>
      <tilted>0</tilted></_>
    <_>
      <rects>
        <_>
          7 19 12 4 -1.</_>
        <_>
          7 21 12 2 2.</_></rects>
      <tilted>0</tilted></_>
    <_>
      <rects>
        <_>
          7 21 1 2 -1.</_>
        <_>
          7 22 1 1 2.</_></rects>
      <tilted>0</tilted></_>
    <_>
      <rects>
        <_>
          8 9 1 4 -1.</_>
        <_>
          8 11 1 2 2.</_></rects>
      <tilted>0</tilted></_>
    <_>
      <rects>
        <_>
          9 4 1 2 -1.</_>
        <_>
          9 5 1 1 2.</_></rects>
      <tilted>0</tilted></_>
    <_>
      <rects>
        <_>
          9 5 3 8 -1.</_>
        <_>
          10 5 1 8 2.</_></rects>
      <tilted>0</tilted></_>
    <_>
      <rects>
        <_>
          10 2 8 12 -1.</_>
        <_>
          10 2 4 6 2.</_>
        <_>
          14 8 4 6 2.</_></rects>
      <tilted>0</tilted></_>
    <_>
      <rects>
        <_>
          10 2 8 12 -1.</_>
        <_>
          10 6 8 4 2.</_></rects>
      <tilted>0</tilted></_>
    <_>
      <rects>
        <_>
          10 5 12 5 -1.</_>
        <_>
          14 5 4 5 2.</_></rects>
      <tilted>0</tilted></_>
    <_>
      <rects>
        <_>
          10 6 4 8 -1.</_>
        <_>
          10 10 4 4 2.</_></rects>
      <tilted>0</tilted></_>
    <_>
      <rects>
        <_>
          10 9 12 7 -1.</_>
        <_>
          14 9 4 7 2.</_></rects>
      <tilted>0</tilted></_>
    <_>
      <rects>
        <_>
          10 19 2 2 -1.</_>
        <_>
          10 20 2 1 2.</_></rects>
      <tilted>0</tilted></_>
    <_>
      <rects>
        <_>
          11 0 1 16 -1.</_>
        <_>
          11 8 1 8 2.</_></rects>
      <tilted>0</tilted></_>
    <_>
      <rects>
        <_>
          11 17 2 6 -1.</_>
        <_>
          11 20 2 3 2.</_></rects>
      <tilted>0</tilted></_>
    <_>
      <rects>
        <_>
          11 17 3 6 -1.</_>
        <_>
          11 20 3 3 2.</_></rects>
      <tilted>0</tilted></_>
    <_>
      <rects>
        <_>
          12 7 1 2 -1.</_>
        <_>
          12 8 1 1 2.</_></rects>
      <tilted>0</tilted></_>
    <_>
      <rects>
        <_>
          15 4 2 2 -1.</_>
        <_>
          15 5 2 1 2.</_></rects>
      <tilted>0</tilted></_>
    <_>
      <rects>
        <_>
          16 1 3 11 -1.</_>
        <_>
          17 1 1 11 2.</_></rects>
      <tilted>0</tilted></_>
    <_>
      <rects>
        <_>
          16 7 5 6 -1.</_>
        <_>
          16 10 5 3 2.</_></rects>
      <tilted>0</tilted></_>
    <_>
      <rects>
        <_>
          16 15 1 8 -1.</_>
        <_>
          16 19 1 4 2.</_></rects>
      <tilted>0</tilted></_>
    <_>
      <rects>
        <_>
          17 0 7 8 -1.</_>
        <_>
          17 4 7 4 2.</_></rects>
      <tilted>0</tilted></_>
    <_>
      <rects>
        <_>
          17 11 1 3 -1.</_>
        <_>
          17 12 1 1 2.</_></rects>
      <tilted>0</tilted></_>
    <_>
      <rects>
        <_>
          17 11 4 2 -1.</_>
        <_>
          19 11 2 2 2.</_></rects>
      <tilted>0</tilted></_>
    <_>
      <rects>
        <_>
          17 11 7 3 -1.</_>
        <_>
          17 12 7 1 2.</_></rects>
      <tilted>0</tilted></_>
    <_>
      <rects>
        <_>
          17 13 2 3 -1.</_>
        <_>
          18 13 1 3 2.</_></rects>
      <tilted>0</tilted></_>
    <_>
      <rects>
        <_>
          17 14 2 3 -1.</_>
        <_>
          18 14 1 3 2.</_></rects>
      <tilted>0</tilted></_>
    <_>
      <rects>
        <_>
          18 0 6 3 -1.</_>
        <_>
          18 1 6 1 2.</_></rects>
      <tilted>0</tilted></_>
    <_>
      <rects>
        <_>
          18 11 4 1 -1.</_>
        <_>
          20 11 2 1 2.</_></rects>
      <tilted>0</tilted></_>
    <_>
      <rects>
        <_>
          18 15 4 2 -1.</_>
        <_>
          20 15 2 2 2.</_></rects>
      <tilted>0</tilted></_>
    <_>
      <rects>
        <_>
          18 15 6 8 -1.</_>
        <_>
          18 19 6 4 2.</_></rects>
      <tilted>0</tilted></_>
    <_>
      <rects>
        <_>
          19 7 2 3 -1.</_>
        <_>
          20 7 1 3 2.</_></rects>
      <tilted>0</tilted></_>
    <_>
      <rects>
        <_>
          19 11 4 2 -1.</_>
        <_>
          21 11 2 2 2.</_></rects>
      <tilted>0</tilted></_>
    <_>
      <rects>
        <_>
          19 12 2 3 -1.</_>
        <_>
          20 12 1 3 2.</_></rects>
      <tilted>0</tilted></_>
    <_>
      <rects>
        <_>
          23 20 1 3 -1.</_>
        <_>
          23 21 1 1 2.</_></rects>
      <tilted>0</tilted></_>
    <_>
      <rects>
        <_>
          23 21 1 3 -1.</_>
        <_>
          23 22 1 1 2.</_></rects>
      <tilted>0</tilted></_></features></cascade>
</opencv_storage>
