<?xml version="1.0"?>
<opencv_storage>
<stage6>
  <maxWeakCount>5</maxWeakCount>
  <stageThreshold>-1.2716901302337646e+00</stageThreshold>
  <weakClassifiers>
    <_>
      <internalNodes>
        0 -1 147062 -9.3840128101874143e-05</internalNodes>
      <leafValues>
        -8.4958219528198242e-01 4.3568465113639832e-01</leafValues></_>
    <_>
      <internalNodes>
        0 -1 156798 -4.1748024523258209e-04</internalNodes>
      <leafValues>
        4.6742516756057739e-01 -7.8764045238494873e-01</leafValues></_>
    <_>
      <internalNodes>
        0 -1 30350 -1.8349464517086744e-04</internalNodes>
      <leafValues>
        -7.6098161935806274e-01 5.0299370288848877e-01</leafValues></_>
    <_>
      <internalNodes>
        0 -1 98159 -1.2124553322792053e-02</internalNodes>
      <leafValues>
        -9.0544545650482178e-01 4.8724979162216187e-01</leafValues></_>
    <_>
      <internalNodes>
        0 -1 91390 -6.7398332059383392e-02</internalNodes>
      <leafValues>
        -6.1580127477645874e-01 6.3521206378936768e-01</leafValues></_></weakClassifiers></stage6>
</opencv_storage>
