<?xml version="1.0"?>
<opencv_storage>
<stage9>
  <maxWeakCount>5</maxWeakCount>
  <stageThreshold>-8.1518578529357910e-01</stageThreshold>
  <weakClassifiers>
    <_>
      <internalNodes>
        0 -1 70698 1.3771397992968559e-02</internalNodes>
      <leafValues>
        -6.5560168027877808e-01 9.8305082321166992e-01</leafValues></_>
    <_>
      <internalNodes>
        0 -1 85787 -6.6294427961111069e-04</internalNodes>
      <leafValues>
        6.4224994182586670e-01 -7.4534434080123901e-01</leafValues></_>
    <_>
      <internalNodes>
        0 -1 126364 -2.3824519012123346e-03</internalNodes>
      <leafValues>
        5.3485673666000366e-01 -7.5247436761856079e-01</leafValues></_>
    <_>
      <internalNodes>
        0 -1 157870 1.9342072308063507e-02</internalNodes>
      <leafValues>
        -4.7498846054077148e-01 9.9587690830230713e-01</leafValues></_>
    <_>
      <internalNodes>
        0 -1 91300 8.9046763605438173e-05</internalNodes>
      <leafValues>
        5.2589195966720581e-01 -7.6925182342529297e-01</leafValues></_></weakClassifiers></stage9>
</opencv_storage>
