<?xml version="1.0"?>
<opencv_storage>
<stage2>
  <maxWeakCount>5</maxWeakCount>
  <stageThreshold>-1.1023677587509155e+00</stageThreshold>
  <weakClassifiers>
    <_>
      <internalNodes>
        0 -1 116329 -4.0534719824790955e-02</internalNodes>
      <leafValues>
        7.0256412029266357e-01 -8.3209878206253052e-01</leafValues></_>
    <_>
      <internalNodes>
        0 -1 76997 -2.8742786496877670e-02</internalNodes>
      <leafValues>
        6.0030329227447510e-01 -7.8877878189086914e-01</leafValues></_>
    <_>
      <internalNodes>
        0 -1 80742 8.1772822886705399e-03</internalNodes>
      <leafValues>
        -5.5954879522323608e-01 8.2306760549545288e-01</leafValues></_>
    <_>
      <internalNodes>
        0 -1 50714 1.8489131703972816e-02</internalNodes>
      <leafValues>
        -7.6874697208404541e-01 4.8412498831748962e-01</leafValues></_>
    <_>
      <internalNodes>
        0 -1 158314 3.4045286010950804e-03</internalNodes>
      <leafValues>
        -6.7313468456268311e-01 5.9393358230590820e-01</leafValues></_></weakClassifiers></stage2>
</opencv_storage>
