<?xml version="1.0"?>
<opencv_storage>
<stage4>
  <maxWeakCount>6</maxWeakCount>
  <stageThreshold>-1.0275677442550659e+00</stageThreshold>
  <weakClassifiers>
    <_>
      <internalNodes>
        0 -1 49285 4.2770584113895893e-03</internalNodes>
      <leafValues>
        -8.3243244886398315e-01 4.6956521272659302e-01</leafValues></_>
    <_>
      <internalNodes>
        0 -1 66343 -5.2234198898077011e-02</internalNodes>
      <leafValues>
        -7.5745433568954468e-01 5.4500770568847656e-01</leafValues></_>
    <_>
      <internalNodes>
        0 -1 120290 1.1272242292761803e-02</internalNodes>
      <leafValues>
        -7.2983431816101074e-01 4.1295936703681946e-01</leafValues></_>
    <_>
      <internalNodes>
        0 -1 103228 2.3134085349738598e-03</internalNodes>
      <leafValues>
        -7.3211997747421265e-01 4.1969484090805054e-01</leafValues></_>
    <_>
      <internalNodes>
        0 -1 62139 -6.5446540247648954e-04</internalNodes>
      <leafValues>
        4.5307224988937378e-01 -7.1913188695907593e-01</leafValues></_>
    <_>
      <internalNodes>
        0 -1 109522 3.4989789128303528e-05</internalNodes>
      <leafValues>
        3.7112125754356384e-01 -8.8261133432388306e-01</leafValues></_></weakClassifiers></stage4>
</opencv_storage>
