<?xml version="1.0"?>
<opencv_storage>
<stage17>
  <maxWeakCount>6</maxWeakCount>
  <stageThreshold>-5.9129744768142700e-01</stageThreshold>
  <weakClassifiers>
    <_>
      <internalNodes>
        0 -1 60122 3.1569548882544041e-03</internalNodes>
      <leafValues>
        -6.5344464778900146e-01 9.3388432264328003e-01</leafValues></_>
    <_>
      <internalNodes>
        0 -1 73993 1.5604948624968529e-02</internalNodes>
      <leafValues>
        -7.4216592311859131e-01 5.5723989009857178e-01</leafValues></_>
    <_>
      <internalNodes>
        0 -1 140619 -1.1484515666961670e-01</internalNodes>
      <leafValues>
        -7.4153810739517212e-01 6.0685449838638306e-01</leafValues></_>
    <_>
      <internalNodes>
        0 -1 30357 -2.6128261815756559e-03</internalNodes>
      <leafValues>
        6.0757619142532349e-01 -7.7878665924072266e-01</leafValues></_>
    <_>
      <internalNodes>
        0 -1 158983 -9.3949157744646072e-03</internalNodes>
      <leafValues>
        -8.6699903011322021e-01 5.1266497373580933e-01</leafValues></_>
    <_>
      <internalNodes>
        0 -1 80781 -2.4790640454739332e-03</internalNodes>
      <leafValues>
        5.0586825609207153e-01 -7.5756394863128662e-01</leafValues></_></weakClassifiers></stage17>
</opencv_storage>
